{
  {-3.30000, -5.70000, 5.00000},
  {-0.30000, 3.90000, 8.20000},
  {-8.61388, -6.39883, -0.64942},
  {12.74140, 3.74955, -1.47523},
  {-1.00000, -3.20000, -5.40000},
  {9.10772, 3.93805, 8.97549},
  {-3.17976, 8.35100, -1.64285},
  {8.51766, 5.20038, 6.55353},
  {-4.52789, 8.45003, 2.47865},
  {-1.65292, -3.75672, 15.01008},
  {15.24420, 3.48370, 13.12830},
  {1.14900, 6.33955, -3.88927},
  {7.75205, -2.55427, -4.02669},
  {4.03491, 7.10915, 7.16780},
  {3.50071, 7.03346, 12.77727},
  {-3.64351, 10.19879, 3.64584},
}

{
  {-6.40000, -5.50000, 7.50000},
  {-5.70000, -7.10000, 7.40000},
  {-2.41535, 0.91643, -5.34179},
  {4.29098, 4.68299, -1.45850},
  {-7.60000, -2.30000, 9.70000},
  {9.41425, 8.85933, 2.92048},
  {3.28076, -2.41316, -0.29431},
  {6.79045, 5.26557, 0.27241},
  {5.72926, -8.00845, -4.90296},
  {-4.15469, -1.14966, 0.00486},
  {11.14712, 6.48201, 5.65498},
  {-3.12718, 5.85419, 12.27700},
  {3.93975, 3.42668, -3.76160},
  {5.47638, -1.87056, 0.85868},
  {5.41064, -1.64245, 1.58857},
  {5.96214, -1.46940, 10.56909},
}