{
  {4.50000, 4.70000, 6.40000, -6.10000},
  {8.40000, -1.10000, 3.50000, -3.90000},
  {3.60000, -9.60000, 8.40000, -0.30000},
  {4.74794, 5.35267, -5.40000, 8.62623},
  {-8.07652, 2.17334, 8.40000, 8.77628},
  {8.01495, -9.22275, -4.40000, 8.44285},
  {-0.10000, -1.70000, 5.50000, -6.30000},
  {-3.75602, 7.69459, -9.30000, 9.96788},
  {2.60037, 6.84663, 8.80000, 9.00543},
  {6.78638, -4.42159, -9.20000, 7.58909},
  {3.46802, -0.70243, -1.90000, 4.16087},
  {0.21247, 5.17931, -3.70000, 12.58160},
  {3.43579, 4.11940, 0.30000, 5.17835},
  {2.18907, 4.63598, 4.00000, 9.76654},
  {3.73627, 6.28571, -3.80000, 7.29671},
  {-2.53715, 9.21049, -6.90000, -1.70037},
  {-7.40070, -9.85105, 0.74474, -2.62909},
  {-1.66003, -6.94004, 1.79978, -7.20364},
  {-9.90000, 7.30000, 0.00000, -9.50000},
  {3.21794, 5.84023, 0.00069, 16.39062},
  {0.69930, 6.44895, 0.74474, -7.12909},
  {6.78134, -4.07798, 2.11008, 2.95090},
  {8.70000, -2.90000, 0.00000, -8.90000},
  {1.04639, 6.49541, 0.00295, 7.47183},
  {121703.72656, 31721.52539, 6319.95800, 67805.05468},
  {-1300096.50000, -684952.06250, 972.30139, -691993.31250},
  {22294088.00000, 24969666.00000, 0.00000, 13990083.00000},
  {47520540.00000, 50932784.00000, 0.00000, 26897114.00000},
  {124095.36718, 32427.58593, 8993.78808, 69143.51562},
  {-1394310.87500, -749245.31250, 972.30139, -744619.00000},
  {4867246.00000, 7610220.50000, 0.00000, 3254996.75000},
  {-44915564.00000, -38770348.00000, -55278284.00000, -18564616.00000},
}

{
  {9.00000, -1.20000, -8.90000, -7.10000},
  {2.00000, 0.40000, -1.80000, 7.20000},
  {7.60000, -8.30000, 7.30000, 3.40000},
  {5.50743, 3.80884, -1.20000, 8.85577},
  {0.08551, -4.07298, 9.10000, 8.50409},
  {-0.84271, 5.39841, 3.50000, 5.44954},
  {-4.90000, 6.30000, 0.80000, -6.50000},
  {-6.04649, 7.43243, 9.90000, 7.71223},
  {6.51622, -4.47135, -5.50000, 9.20001},
  {8.42926, 1.77068, -7.40000, 8.14007},
  {4.09214, -2.43026, -1.10000, -0.44260},
  {6.54496, 0.13317, -4.10000, 2.11083},
  {3.14001, 5.90282, 9.10000, 1.91513},
  {-0.67783, 8.20762, -7.00000, 1.60740},
  {1.06400, 7.26779, -0.90000, 9.44021},
  {-3.95984, 8.57228, -3.90000, 5.94207},
  {7.84443, -0.53335, 0.33325, -4.63403},
  {2.50738, 6.96107, 0.80535, 5.20110},
  {3.00000, 8.00000, 0.00000, -3.30000},
  {-5.36296, 8.15772, 0.01759, 10.51541},
  {1.74443, 0.96665, 0.33325, -2.43403},
  {-3.27411, -1.61116, 0.94421, -4.32975},
  {-1.60000, -9.70000, 0.00000, -0.70000},
  {1.95050, 5.78487, 0.07476, 7.44188},
  {-183967.89062, -47966.08203, -9551.73730, -102495.87500},
  {1965458.50000, 1035497.68750, -1469.49841, 1046139.50000},
  {-33703712.00000, -37748588.00000, 0.00000, -21149898.00000},
  {-71840480.00000, -76999040.00000, 0.00000, -40662452.00000},
  {-187600.15625, -49032.78906, -13592.85937, -104523.92187},
  {2107901.25000, 1132702.87500, -1469.49841, 1125731.87500},
  {-7358179.50000, -11504962.00000, 0.00000, -4920805.50000},
  {67902376.00000, 58612144.00000, 83568496.00000, 28065604.00000},
}