{
  {-4.92530, 3.06773, -9.70000, 12.01089},
  {4.10857, 9.68667, 4.30000, 15.17319},
  {-4.58857, 14.17301, 4.40000, 8.83436},
  {-3.35142, 7.44389, -9.20000, 8.59773},
  {3.66270, 12.55959, 0.90000, 4.85262},
  {11.85207, 8.29237, 5.40000, 16.22053},
  {9.66143, 6.65714, 0.30000, 10.01622},
  {1.03440, 6.12505, 7.80000, -4.67743},
  {6.88097, 5.38778, 2.70000, -2.09128},
  {10.26362, 1.65295, 8.50000, 8.17935},
  {8.16376, 4.16016, -3.40000, -4.26402},
  {7.42432, 0.99076, 4.20000, -4.54018},
  {7.66514, -3.52875, -4.10000, 3.18074},
  {5.45482, 5.45853, -0.60000, 4.31809},
  {6.69055, -0.59293, -7.70000, 7.86054},
  {-0.14987, 6.81513, 1.10000, 0.38341},
  {2.79511, -5.44944, 0.50260, 4.91194},
  {3.42848, -6.28885, 1.88476, 1.77704},
  {4.60000, 0.70000, 0.00000, 6.80000},
  {5.77641, 6.18967, -0.01243, -0.56358},
  {5.30601, -1.29628, 0.50260, -4.21981},
  {-2.73366, 0.35295, 0.75390, 0.90745},
  {-5.70085, 2.11475, 0.00000, 3.68380},
  {1.45102, 6.18289, -0.05283, -1.94636},
  {0.93435, -2.57872, 0.32897, 10.37927},
  {-2.14730, 4.74060, 1.37071, 11.82535},
  {-3.60085, 1.81475, 0.00000, -4.51620},
  {-5.86239, 9.68290, -0.17557, -4.11193},
  {7.91057, 1.84460, -0.00781, 6.84370},
  {-1.22469, 6.82342, -0.00514, 7.07045},
  {4.70000, -0.50000, 0.00000, -3.60000},
  {123.88343, 131.68344, 212.54620, 56.55214},
}

{
  {4.72281, 4.63601, -6.70000, 7.18375},
  {-3.32410, 14.57095, -7.70000, 6.29361},
  {-1.82831, 9.69601, 4.00000, 5.67531},
  {4.11362, 6.08330, -5.20000, 14.41408},
  {-4.76029, 9.49749, -2.60000, 3.43909},
  {10.32452, 5.27578, 5.80000, 5.21559},
  {6.69209, 6.38611, 6.70000, 7.70356},
  {1.35145, 6.45878, 6.90000, 0.10877},
  {6.11482, 10.47524, -7.20000, 6.52807},
  {3.96093, 7.26977, -6.80000, 2.13151},
  {1.52730, 8.13548, 1.80000, 10.61396},
  {3.35060, 2.32822, 6.60000, -10.67039},
  {6.52322, -6.48505, 8.20000, 9.87299},
  {4.35110, 0.94207, -2.20000, 0.24825},
  {5.53401, -2.00164, -1.90000, 4.87409},
  {3.96067, 0.91289, 9.50000, 4.30094},
  {-8.86654, -1.55385, 0.58480, 2.22621},
  {-6.26308, -1.69000, 2.19300, 8.43889},
  {8.10000, 4.80000, 0.00000, 0.50000},
  {0.45151, 7.59665, -0.01315, 7.12696},
  {0.32612, -1.95823, 0.58480, 3.95601},
  {9.58670, 5.36575, 0.87720, 3.16369},
  {4.30930, 0.64164, 0.00000, 3.49992},
  {5.27706, 5.08398, -0.05589, -0.01814},
  {-7.59930, 6.53483, 0.16621, 11.96027},
  {-1.07662, 7.57572, 0.69253, 8.44610},
  {8.10930, -4.15836, 0.00000, -9.30008},
  {9.30442, 2.74852, -0.12077, -5.62569},
  {-1.61314, 5.51325, 0.22217, -2.16497},
  {11.89038, 1.05143, 0.14617, -6.16008},
  {5.80000, 2.80000, 0.00000, 1.40000},
  {-76.89234, -71.49234, -131.70730, -39.20794},
}