{
  {8.70000, -5.90000, -8.60000, -5.40000},
  {-7.70000, -2.60000, 5.20000, 4.10000},
  {-0.98639, -4.26493, 3.00000, 6.64595},
  {0.41417, 6.52062, 2.10000, 4.46431},
  {9.10000, -0.50000, 3.00000, -4.20000},
  {-5.10000, -6.90000, 6.90000, -6.20000},
  {-5.51430, 8.88525, 0.20000, 9.37416},
  {-1.33813, 7.11327, 0.70000, 7.99953},
  {-9.10000, -0.50000, -8.70000, -6.40000},
  {3.40000, 3.00000, -10.00000, 3.30000},
  {11.28993, -7.52945, -4.90000, 5.46433},
  {4.16529, 4.45143, -5.70000, -0.10606},
  {-0.18206, 9.91812, -2.60000, 9.29560},
  {-1.62848, 6.90411, -4.60000, -1.07654},
  {9.10524, 0.75344, 6.00000, 11.58840},
  {5.72050, 0.92528, 3.70000, 5.32528},
  {4.99761, 7.79761, 0.48807, 2.04308},
  {6.85520, 8.05117, 0.28791, -8.51353},
  {3.34320, -4.72487, 0.00000, 7.81065},
  {-4.15872, 9.72452, -0.21629, -7.23142},
  {6.97757, -1.54950, 0.48807, -4.49491},
  {14.99579, 0.70844, 1.22363, 13.61939},
  {-4.76311, 13.96986, 0.00000, 0.56182},
  {-4.13224, 7.05820, -0.25358, -0.54357},
  {8.70569, -2.03040, 0.73847, -0.98506},
  {2.37804, -1.01284, 0.46269, 12.12638},
  {2.83841, 13.13014, 0.17626, 1.86710},
  {2.04964, 7.48369, -0.15175, 11.49586},
  {9.25778, -5.90843, 0.07782, 4.42289},
  {3.59589, -1.49497, 0.09124, -5.01224},
  {-9.70000, 6.60000, 0.00000, 0.10000},
  {-16.39014, -9.63364, -27.89696, -3.19519},
}

{
  {7.90000, 6.60000, -7.20000, -6.90000},
  {6.50000, -7.20000, 9.00000, 5.70000},
  {-9.14553, -2.85476, -8.90000, 2.25406},
  {3.03655, 6.17014, 7.50000, 2.13110},
  {1.10000, -4.30000, 8.40000, 1.50000},
  {-6.00000, -5.60000, -7.40000, -5.10000},
  {-7.17622, 10.97202, 3.80000, 10.10576},
  {-2.42280, 7.17914, -1.20000, 5.96632},
  {9.50000, 3.20000, -7.10000, 2.70000},
  {3.50000, -7.50000, -9.50000, 4.80000},
  {-6.41866, 7.35458, 9.80000, 6.72947},
  {3.33887, 3.07468, -2.40000, 9.15734},
  {3.81794, -3.49522, -0.60000, -4.29695},
  {0.03699, 6.34714, -7.30000, 0.41686},
  {9.48181, -3.70733, -2.10000, -3.50356},
  {1.29940, 3.42707, 8.40000, -5.24922},
  {-5.19383, 5.00617, 0.53087, 1.76440},
  {-0.43579, -5.13906, 0.29019, -7.09108},
  {-8.23814, 8.93099, 0.00000, 8.31279},
  {4.83104, 5.83594, -0.08786, -4.54374},
  {-0.71939, 5.44540, 0.53087, 3.30387},
  {1.76617, 9.71313, 1.23332, 4.03232},
  {2.92339, 2.83263, 0.00000, -1.55366},
  {-5.14469, 8.27919, -0.10300, 9.08449},
  {3.75566, 0.17572, 0.82043, 8.05222},
  {-5.70729, 10.93668, 0.31469, 6.78083},
  {7.72010, 5.58098, 0.11988, -6.85266},
  {4.55637, 2.35841, -0.12648, -11.78827},
  {5.58126, 4.52617, 0.51931, -9.10463},
  {4.19071, 9.49949, 0.60884, 7.74792},
  {-4.90000, -9.90000, 0.00000, 5.80000},
  {69.63821, 55.82944, 102.62459, 20.25936},
}